Weights for Layer: dense_1

Weights 1 Shape: (50,)
Weights 1:
-0.20316650
-0.25177085
-0.19345929
0.12514879
0.08851717
-0.14719789
-0.03554228
-0.12222617
0.40074909
0.05802425
-0.02793558
0.12115650
-0.11059502
0.12859133
-0.08939598
-0.29475531
-0.05276194
-0.07362705
-0.10158167
-0.22464451
0.17666321
0.03402250
0.09818587
-0.06039280
-0.05097336
-0.07494855
0.23952948
-0.14843880
-0.01625285
0.04817972
-0.01149781
-0.13063785
0.11734402
0.13076679
0.31040302
0.29193020
-0.18866588
0.13798158
0.00651025
0.23302621
-0.18905145
-0.01589810
0.05156854
0.03137356
0.02692882
0.03206906
0.03595531
-0.10550121
0.10615179
0.19760051


Weights 2 Shape: (50, 50)
Weights 2:
0.09318669, 0.19460507, 0.34435105, 0.34255308, -0.16722530, 0.02365525, -0.07882717, -0.07608888, -0.29013875, -0.10267675, 0.04560400, -0.43672714, 0.10530837, -0.17399980, 0.05265788, 0.07143728, 0.30393931, -0.24608457, -0.16629805, 0.05101794, 0.40128866, 0.08917819, -0.09917177, -0.25905102, -0.13031358, -0.02056856, 0.34529561, -0.01645313, -0.12709662, 0.22799392, -0.19468313, 0.44474468, 0.39666137, 0.31218174, -0.04103083, 0.27012542, -0.31402180, -0.39514047, -0.00356275, 0.06389345, -0.12527291, -0.13088654, -0.37057298, -0.34114391, 0.02565082, 0.35669458, 0.18290885, -0.40066034, 0.17753638, 0.35763413
-0.27099589, -0.14113469, -0.03350297, -0.10232624, 0.38612813, -0.01492286, -0.02457971, 0.07058834, -0.02483435, 0.13712223, 0.21121809, 0.22412464, -0.44734049, -0.44855961, 0.39130360, 0.36955652, -0.04731154, -0.08840800, -0.04527316, 0.20237182, -0.25402212, -0.15776224, -0.12715326, 0.19308183, -0.07296789, 0.45834240, -0.00673307, -0.11630241, 0.25166246, 0.35448167, -0.17575313, -0.17236507, -0.28282955, -0.24859251, 0.05948063, 0.24057348, -0.05240708, 0.10658056, 0.17077927, 0.32641616, 0.13617267, 0.09800453, 0.12677291, -0.09936989, -0.32883918, 0.07246270, -0.07184363, 0.13858783, -0.16962151, -0.36594051
0.22395928, 0.06109628, 0.06838733, 0.16906947, -0.39821956, 0.14181358, 0.21557641, -0.09124118, -0.33714059, 0.04939465, -0.04504997, 0.04649252, -0.09484264, -0.11456551, -0.02216224, -0.25786573, -0.47107378, -0.14462277, 0.28101367, 0.02680444, -0.06402409, 0.04695744, 0.00991745, 0.31413665, -0.18536189, 0.04666562, 0.33274788, -0.60948479, 0.17683391, -0.08993211, 0.00523011, 0.07415613, -0.56691313, 0.02319254, -0.28960389, -0.05998402, 0.11260918, 0.04879030, -0.06397366, -0.02973712, 0.21936399, 0.11992216, 0.02770023, -0.04587555, 0.29651806, -0.36124921, 0.33308452, -0.29736695, 0.11614726, -0.34374574
0.05446405, 0.15000133, 0.16289628, -0.36804023, -0.24032818, 0.11320977, -0.09267429, -0.18050331, -0.22970909, -0.10703122, 0.07165229, 0.15449287, -0.15330660, 0.42338806, -0.31078258, -0.42021140, -0.02271980, -0.14291292, 0.01881696, -0.23641795, 0.29437092, -0.02469015, -0.01179220, -0.41972211, -0.13490486, -0.07839385, 0.11069775, -0.12708005, 0.31698853, -0.19801423, -0.09274387, -0.02728186, 0.19839726, -0.02511973, -0.22648236, 0.03991241, -0.09609874, 0.39550078, -0.01814587, -0.17374724, -0.43933868, 0.39736617, 0.20116237, -0.15275282, 0.28328338, -0.13388944, 0.09322585, 0.14448668, -0.07459365, -0.07892627
-0.44096151, 0.08055189, 0.11710065, -0.12203749, -0.14271666, -0.12264093, -0.12826595, -0.18516415, 0.18729372, 0.07342122, 0.01653670, 0.00943647, 0.36526671, 0.04558174, 0.21054582, 0.65894693, -0.24141061, 0.41991043, 0.01603586, 0.14430356, 0.17645495, 0.06424186, -0.16944782, -0.25664476, 0.13798241, 0.24002372, 0.14825211, -0.25489712, 0.05930210, -0.15201841, -0.38842115, -0.16883966, 0.48516119, -0.36872333, 0.05436458, -0.04096203, -0.32608593, 0.26694065, -0.02072989, -0.17054486, 0.26663849, 0.08227730, -0.18175821, -0.25544101, 0.03028519, 0.06274614, -0.05455932, 0.12733063, 0.03632170, 0.08642317
0.23754159, -0.07763633, 0.09222011, -0.21648133, 0.16982621, -0.17642739, 0.04259468, 0.32561058, -0.38216171, -0.13311119, 0.01812441, 0.14585112, -0.14921412, -0.12928796, 0.02304500, 0.31070927, -0.07035174, 0.56640619, -0.10352616, -0.27377087, -0.26151311, 0.01813001, -0.01822279, -0.08602952, 0.02505118, 0.30256057, -0.45255005, -0.22004534, -0.10615084, -0.15503928, 0.25324556, -0.14610894, 0.16022755, 0.04387575, 0.28394890, -0.00217154, 0.25471517, 0.27414575, -0.28545102, -0.21811743, 0.17711626, -0.05892637, 0.12750687, -0.04953299, 0.34411228, -0.20778076, 0.14291345, -0.06413989, 0.13307913, -0.13793574
-0.34349850, -0.41220134, -0.13436636, 0.27233788, 0.61229879, -0.07966776, 0.10039780, -0.05694310, 0.20504957, 0.10054177, -0.20729221, 0.34048527, 0.31610259, 0.10600320, -0.41484982, 0.41776147, -0.26597002, 0.13684914, 0.05940088, -0.23773596, -0.30277556, 0.06338748, -0.05114469, -0.14239003, -0.01486482, -0.05351127, 0.19109635, -0.10411564, 0.00798643, 0.10095246, 0.15661538, -0.14594798, -0.08410237, 0.00761893, 0.01795636, 0.11228469, -0.18110755, 0.03996363, 0.15268430, 0.20156881, -0.15184064, -0.07268448, -0.15548901, 0.19027628, 0.03160534, 0.19115254, 0.14616285, -0.33487988, -0.12658432, -0.23255993
0.28458896, 0.16587415, 0.13236350, 0.42030862, -0.09999560, -0.00272876, -0.12866688, 0.01536675, -0.04904846, -0.25214386, -0.08072191, -0.12027969, 0.18580970, 0.08003128, -0.07319766, 0.07390366, 0.17191507, -0.34641066, -0.04468685, -0.31800723, -0.21885933, 0.14314686, -0.08486152, -0.03599777, 0.01206590, 0.27588841, 0.13308622, -0.11579198, 0.14426951, -0.19548109, 0.24542816, -0.03455955, 0.16297118, 0.22737059, -0.23257640, 0.21613282, -0.05211850, -0.14825353, -0.00693102, -0.25210723, 0.16882388, 0.21269348, -0.13602212, 0.35456139, -0.28375125, 0.23678495, 0.09319564, 0.29378361, -0.30519196, -0.03351586
-0.32833633, -0.03924917, -0.06440917, -0.13723081, 0.29955170, -0.09312613, -0.04743616, 0.09819400, 0.04459135, -0.07900837, 0.04385394, -0.02725627, 0.21733387, -0.02092591, -0.09648671, -0.38922977, 0.24744160, -0.09346699, -0.08307125, 0.07060863, -0.33272952, 0.02062970, -0.13108823, -0.16574736, -0.17250182, 0.29164833, 0.26075566, 0.08723114, -0.05720653, 0.14527534, 0.24388263, -0.04324775, 0.07233080, 0.31602922, -0.21860497, -0.24720801, -0.39937806, -0.31976649, -0.01236156, -0.08807145, 0.08225476, -0.09781361, 0.13341758, 0.19438873, 0.03024415, 0.18366466, 0.14187846, 0.28294304, 0.10088346, 0.23795524
0.25940254, -0.19272989, -0.07016438, 0.17616716, -0.16077107, -0.06059162, -0.10622352, 0.14357691, 0.09663332, 0.18535921, 0.06406974, -0.08396820, -0.00276310, 0.35254946, -0.57572389, 0.10629230, -0.25132030, 0.16339442, -0.17345165, 0.24991642, 0.10488129, -0.08371607, 0.09472746, 0.07525160, -0.03986626, -0.09893226, -0.09592874, 0.12778196, -0.10254430, 0.26028731, -0.00661288, 0.40864542, -0.31033120, -0.03689467, 0.12603021, 0.17552792, -0.13286529, 0.22946885, -0.04608786, 0.05341588, 0.08110280, 0.17481908, -0.03106773, 0.08666358, -0.19669384, 0.29774845, 0.02175313, -0.02815956, 0.04182001, 0.22281419
0.01054994, 0.11439173, -0.34374893, 0.17433111, 0.08769680, 0.17243756, -0.05754699, -0.01147920, -0.14694430, -0.00424174, 0.09169928, -0.11853088, 0.06593446, 0.31898424, 0.06258025, 0.15245108, -0.10755079, -0.19860595, -0.29549032, 0.11924732, 0.17675757, -0.31303024, 0.06324111, 0.03111518, -0.17209353, -0.24494484, -0.06831271, 0.09049991, 0.25315866, -0.27607974, 0.03749133, -0.07366564, -0.10863943, 0.07041207, 0.24178055, -0.24038137, 0.24726573, -0.22153808, -0.00888909, -0.00469330, 0.19564497, -0.30030504, -0.09877960, 0.10487601, 0.20179076, 0.22007841, 0.08987778, -0.19845729, 0.10729970, 0.00738883
-0.16890687, 0.30031785, -0.22907287, -0.27425054, -0.21879116, 0.21174516, 0.14734177, -0.17246979, 0.19649065, -0.14843309, -0.09695047, 0.15728930, -0.24743722, 0.13888888, 0.25700620, 0.20720001, 0.23010860, 0.00533271, -0.07933263, 0.24839655, 0.28020921, 0.03362582, 0.11773620, 0.44150174, -0.19889568, -0.22382897, 0.01671070, 0.28926802, 0.03183690, -0.05409565, 0.06107893, -0.12996814, -0.17944464, -0.44771096, 0.43251476, -0.05210385, 0.32455692, -0.36583364, -0.01078696, 0.13732757, -0.04442957, -0.08261786, -0.25800213, -0.06841472, -0.14472154, 0.37005693, 0.15344399, 0.15710337, -0.01815449, 0.23318650
-0.00381997, -0.22993422, 0.00559949, -0.27147868, -0.07317588, -0.00261007, -0.06087436, -0.11010816, 0.04036580, -0.11602449, 0.08806470, 0.14591870, -0.18505161, -0.03425596, 0.28013891, 0.17670998, 0.00657724, -0.23054799, 0.20635414, -0.24445806, 0.20035122, 0.13175996, 0.03323488, 0.07291576, 0.05300207, -0.03801748, -0.18743041, 0.16091380, 0.03636015, 0.19920471, -0.09271764, 0.16584629, -0.44365522, 0.37120667, 0.21234785, -0.19578318, -0.27026823, 0.16916792, 0.00075519, -0.18117845, -0.22104512, 0.23994964, 0.15869975, 0.19722047, -0.03362162, -0.11975040, -0.15530945, 0.05111752, -0.01607795, 0.29660669
-0.49213254, -0.32050139, -0.26865858, -0.08344590, 0.12582970, -0.07779093, -0.22848648, 0.09306020, 0.29149359, -0.20261370, 0.13097923, 0.28373581, -0.29515359, 0.16372359, -0.06353594, -0.13321947, 0.24090552, 0.12277316, -0.08940324, -0.06394622, -0.14650723, 0.21112214, -0.00125498, 0.07178421, 0.42460170, -0.18697472, -0.08580551, -0.03933290, -0.07828748, -0.22516890, -0.17577618, 0.35086164, 0.34315872, 0.15458789, 0.39979458, 0.39295951, -0.39823779, -0.11017086, -0.18120798, 0.11216336, -0.26156735, 0.29496256, -0.17348793, 0.43565652, 0.04491776, -0.39371040, -0.22641496, -0.35850543, 0.07304146, -0.19855876
0.03145901, -0.19302610, 0.04579657, -0.17410214, 0.19020000, -0.24735196, -0.09020089, -0.03036298, 0.22580376, -0.16416174, 0.02289467, 0.00956108, -0.01628670, 0.06189563, 0.35713902, 0.37169626, 0.17057538, 0.30162531, -0.04691421, 0.15996841, 0.15448557, 0.08353408, -0.19283216, 0.23246644, -0.14943478, -0.09454834, -0.14648284, 0.01090002, -0.00055561, -0.16453068, -0.23774318, -0.17777866, 0.08891190, 0.06218762, 0.17869513, 0.50780582, -0.24744579, 0.12820102, -0.16353738, 0.21082838, 0.30296770, -0.19629781, -0.10208882, -0.07770853, -0.12077792, -0.14651549, 0.27365586, -0.01940181, 0.09160019, 0.03811590
0.47674865, 0.06706224, 0.27032542, -0.10406217, 0.21050742, 0.16740386, -0.16877747, 0.15203772, 0.26436999, -0.26100388, -0.11595402, 0.32613066, 0.12190285, 0.08332567, 0.23594871, -0.31272438, 0.30436900, 0.32599914, 0.19613315, -0.26141554, -0.35885218, 0.06797507, -0.00324880, 0.23266143, 0.00627205, -0.19698189, -0.09500425, 0.16832952, -0.09889320, -0.20180234, -0.00803623, -0.18366340, 0.40412307, 0.34629467, -0.05420788, 0.13344522, 0.01187393, 0.03424529, 0.10370286, -0.24671619, -0.04347434, -0.34700558, 0.29018092, 0.05174509, -0.15195754, -0.02744283, 0.03881247, -0.09006879, -0.02151229, 0.27814272
0.02683084, 0.12295072, -0.36409748, 0.20904173, -0.17374498, 0.02417266, -0.20396051, 0.10478138, -0.12842801, 0.19618478, 0.21915059, -0.42086115, -0.30976602, 0.20180514, 0.17718092, 0.09315634, 0.09352467, -0.22378388, -0.10241494, 0.17643605, 0.12773477, 0.07281016, 0.18915251, 0.33313465, 0.02131446, -0.06158129, -0.03107662, 0.18801908, 0.09824943, -0.13834737, 0.17182982, -0.31930700, -0.22131048, -0.11227667, -0.12924050, -0.21850832, -0.04591856, 0.18825988, -0.00975667, -0.31213510, -0.03276617, 0.37815917, -0.30436257, 0.16572462, -0.10480936, -0.01564668, 0.00775349, 0.12451802, 0.23350389, 0.12379073
0.02022304, 0.12537584, 0.15525286, -0.09708353, -0.24551801, 0.05170244, -0.06840366, -0.08968652, -0.13772431, -0.27859211, 0.12493453, 0.25753599, 0.10520368, -0.23427162, 0.31415337, 0.09824906, 0.36013085, 0.13908605, 0.19069400, -0.18053381, 0.20544250, -0.13467835, -0.14321136, 0.47721478, 0.14902785, 0.03834460, -0.22100395, 0.17627835, -0.19355370, 0.30921108, 0.01361516, 0.04695679, 0.03742781, -0.14415593, 0.09755877, -0.33594015, 0.26198214, 0.13236827, -0.21554665, -0.29134181, 0.11687990, 0.22059460, 0.22574912, -0.03801757, 0.25048891, -0.09336860, 0.26574120, -0.15091921, -0.05438177, -0.01011694
0.08176330, -0.05946339, -0.12956649, 0.06796341, 0.29730299, -0.00696688, -0.05178894, 0.06699523, 0.26207805, -0.18361601, 0.08316285, -0.17488857, 0.44572595, -0.39461705, 0.27853817, 0.09414565, -0.22938837, 0.07359174, 0.09207348, 0.01308756, 0.12999119, -0.02234730, 0.10236086, 0.39230904, 0.04817574, -0.07036840, -0.07977869, 0.09515901, -0.06571769, -0.00113554, 0.27584788, 0.07638341, 0.29716289, 0.19432624, -0.27640557, -0.07907612, 0.15984416, 0.26786637, -0.04883339, -0.17589693, 0.44982785, -0.29825369, 0.34177843, -0.00719815, 0.27056232, 0.30923781, -0.10666497, -0.15002237, 0.16019151, -0.32521361
-0.29676583, 0.14714485, 0.10899214, 0.03323096, 0.11413987, 0.08681758, -0.23220184, 0.06796312, 0.03856011, 0.14011776, -0.03662832, -0.05725416, -0.03823891, 0.06860644, 0.30378455, -0.06681125, -0.15660925, 0.00235859, 0.11267117, 0.11123579, 0.14250319, -0.20562589, 0.04283834, 0.24956293, -0.06861001, 0.19577007, 0.22852677, 0.34214896, 0.10124004, 0.01500279, 0.04243937, 0.01711177, 0.15752298, 0.10546800, 0.16488756, 0.04783918, 0.12551460, 0.05667469, -0.04225757, 0.54999626, 0.37097412, 0.35026187, 0.05292864, 0.10036063, -0.20540574, -0.21980587, 0.21212724, 0.34099469, -0.21650872, -0.14852592
0.11969388, 0.02659466, -0.31104612, -0.07060649, -0.19170293, -0.22916578, 0.04895535, 0.14380097, 0.11579498, -0.00344050, -0.05884317, 0.10564598, -0.06370617, -0.33455455, 0.04462248, 0.04151462, -0.14609908, -0.11426733, 0.23846063, -0.19670680, -0.11624276, 0.00159361, 0.00571443, -0.00533416, 0.17595068, -0.24136168, 0.00479663, -0.22670987, -0.05892701, -0.22804803, -0.17996204, 0.30897310, 0.08829626, -0.01668052, 0.22446921, 0.12957090, 0.03622452, 0.00724042, 0.00390112, -0.18517864, -0.18816780, 0.15297934, 0.46162474, 0.31925520, -0.04355721, 0.12052026, 0.12381703, -0.04659063, -0.23458102, -0.14043391
-0.43871042, 0.36677444, -0.06647944, -0.33702716, 0.08938822, 0.00182698, 0.04625700, -0.30865720, 0.43004590, -0.03861598, 0.09875527, 0.35301182, 0.12196612, -0.24608549, 0.04831377, 0.02567139, -0.12443724, 0.20618494, -0.10986508, -0.06985919, 0.10369483, 0.11013921, 0.22325802, 0.10180281, 0.06347554, 0.31664109, 0.23381400, 0.10625821, 0.30723876, -0.33936989, 0.13577007, -0.14024247, 0.19210933, -0.26445985, -0.20113836, 0.30965376, 0.04362949, -0.21548620, 0.27132472, -0.13479836, -0.22763489, -0.09612801, 0.26268989, 0.22020029, -0.06581159, -0.26961878, 0.00216999, 0.31243590, 0.15293911, -0.10247748
0.09966341, -0.18703389, -0.11741026, 0.19663222, -0.07762755, 0.00995445, -0.23597987, 0.17589049, -0.02985938, 0.07214953, -0.08026260, 0.05662597, -0.25379762, 0.18076910, -0.47256196, -0.18900107, 0.14050643, -0.25217396, 0.21410505, -0.15390071, 0.30746341, -0.06818976, -0.14290439, -0.01313789, 0.08084109, -0.02231668, -0.13845047, -0.32474148, -0.21907033, -0.20827287, 0.28399107, -0.00618525, -0.24891633, -0.15880756, -0.00641963, -0.15791671, 0.21576725, -0.27347627, -0.27905905, 0.39360258, 0.24477991, -0.04323890, 0.36009970, 0.02554069, -0.06812481, -0.01742482, 0.03771342, 0.20579106, 0.06990268, 0.13500988
-0.21297489, 0.34976771, 0.21131913, -0.18301241, 0.28855398, -0.01909701, -0.20970854, -0.07844611, -0.13028826, 0.03354591, 0.09296459, -0.03962510, 0.19918199, 0.16541320, -0.15770201, -0.04317344, -0.05535242, -0.08369085, 0.18463822, -0.09596482, -0.26457447, -0.05933262, 0.19120100, 0.04391656, 0.11000752, -0.07104312, 0.45799169, -0.46000165, -0.13363649, 0.17138721, -0.03388494, 0.29743552, -0.25249091, 0.40061921, -0.07226461, 0.23919056, 0.26798630, -0.10215788, -0.30260554, -0.05303456, -0.11003722, -0.00493300, 0.03329331, -0.19330470, 0.21598844, 0.25574079, 0.24635628, 0.24149342, -0.16680144, -0.30596441
0.19576254, -0.05087139, 0.04319424, 0.02896541, -0.20186041, -0.02309116, -0.05570941, 0.08173376, -0.16021141, -0.12779735, -0.14167129, 0.18509346, 0.29176089, -0.31694412, -0.37019661, -0.18398979, -0.39947999, -0.08968855, 0.04747785, 0.16791116, 0.38637331, -0.06181283, 0.01004310, 0.02723011, 0.02374637, -0.52565324, -0.35178116, 0.30903995, -0.21902266, 0.25784272, -0.30478749, -0.42414892, -0.38140008, -0.25665376, -0.01782387, 0.03089046, -0.30869842, 0.11961074, -0.00391139, 0.17554750, -0.11065061, -0.03618651, -0.14720778, 0.37498146, 0.15059532, -0.48939267, 0.09124459, 0.07598433, -0.10371005, -0.18835463
0.07758961, -0.07616798, 0.04433902, -0.04141755, -0.30486226, -0.19340509, 0.10576186, 0.00893543, -0.38972455, 0.22465694, -0.03199835, -0.14040221, -0.32831237, -0.22660939, -0.11487456, -0.30946314, 0.00129565, 0.19158860, -0.17533597, 0.01952413, 0.06172898, -0.18029228, 0.02582812, 0.42735580, -0.13923271, -0.45407110, 0.19303241, -0.19568688, -0.04750399, 0.24660267, 0.39006394, 0.25182575, 0.11476979, 0.26385364, -0.26126960, -0.04403835, 0.23417105, -0.19503741, -0.01793635, 0.35743192, -0.15048607, 0.35878518, 0.10015660, 0.03838785, 0.01095673, 0.07047184, 0.01118828, 0.13507660, 0.13002720, -0.00782633
-0.50603294, -0.09467476, 0.06106124, -0.00067332, -0.29790881, -0.15330593, 0.17904945, 0.10437796, -0.03979099, -0.04842186, 0.12219376, -0.10224044, 0.04575732, -0.04872755, 0.07774521, -0.25404993, -0.01797558, 0.21032187, 0.25966525, -0.15539365, 0.03670062, -0.06274044, 0.12302923, -0.14238909, 0.00463719, 0.35000235, 0.27303475, 0.04300717, 0.09577789, -0.29153135, 0.03497889, 0.23570266, 0.04721723, 0.16105017, 0.01278889, -0.14096099, -0.20791326, -0.18977638, -0.02548830, -0.13960348, 0.30397379, 0.18548119, -0.29515609, -0.31451613, 0.12531425, -0.24503092, 0.04192060, 0.15971644, 0.07015855, 0.17612761
-0.04045739, 0.21646921, 0.23548581, 0.04212774, -0.06315508, 0.33349055, 0.21081544, 0.07647530, 0.00409820, -0.04855992, 0.11561522, 0.26323745, 0.05280530, 0.06251760, 0.15834235, -0.02359556, -0.49207392, 0.19153017, 0.17307958, -0.01794441, 0.16829912, -0.06776901, -0.07863697, -0.29313862, -0.08598766, -0.20745477, 0.10446513, -0.11504684, -0.22265108, -0.10869586, 0.13527764, -0.17980616, -0.06638593, -0.11872861, 0.20568325, 0.30403957, -0.40066624, 0.11357445, -0.04536305, -0.01261950, -0.23627126, -0.18244259, 0.05856511, -0.28249925, 0.10154039, 0.22711137, 0.18944244, -0.22271320, 0.03118111, 0.13251640
-0.05719348, 0.21085417, -0.31687844, 0.07575911, 0.12374926, -0.07921401, 0.07716829, -0.10634059, -0.21064244, -0.11580151, 0.07200545, -0.03548285, -0.17485388, -0.16574238, -0.07421742, -0.18712576, 0.08985782, 0.11663836, -0.02591184, 0.23716836, 0.22653350, -0.11071333, 0.04480922, 0.11609130, -0.08993655, -0.21685864, -0.22495471, -0.02685633, -0.16425426, 0.43563163, -0.00667149, 0.31608775, -0.41750962, 0.20931007, -0.15583722, 0.27833304, -0.18643533, 0.26608825, 0.01465899, -0.27354136, 0.27380967, 0.39593238, 0.16734374, 0.42357329, 0.47585544, 0.28134462, 0.01061919, 0.12070090, 0.22054181, -0.03721684
-0.12574828, 0.08066119, 0.49489817, 0.41058725, -0.19159845, 0.09699768, 0.23109742, -0.12800653, 0.27612773, -0.06715840, -0.03579279, 0.10365087, -0.15449475, 0.31477919, -0.17815623, -0.26690304, -0.32259312, 0.18505313, -0.18574032, 0.18009233, 0.30114621, 0.23132499, 0.02410199, -0.47714439, -0.04120002, -0.31748965, 0.20456517, -0.08998495, 0.08483817, 0.26878747, 0.08361707, 0.41130805, 0.12627913, 0.10711502, -0.07856909, 0.06267588, 0.28752169, 0.15208726, -0.05903732, 0.20163557, -0.09170479, -0.04013771, 0.30812728, 0.10095000, -0.01109088, -0.32786098, 0.03592809, -0.23220068, -0.15604518, -0.11908036
0.13435605, -0.21870263, 0.16266090, 0.37608343, -0.23456427, 0.17092153, -0.03429850, -0.07890246, -0.03603838, -0.18539794, 0.18514641, 0.26374793, -0.15318741, -0.15273248, -0.11916487, 0.27837700, -0.22633210, 0.00327246, 0.18907288, 0.25308594, -0.21309061, 0.11553301, 0.04137108, 0.05497188, -0.12053075, 0.20624553, -0.01704923, 0.06710283, -0.04451848, -0.24904923, -0.35393053, -0.07844978, 0.28648192, -0.14900883, 0.38713601, 0.19751255, 0.18846938, -0.16934627, 0.08991298, -0.14253877, 0.12259876, -0.03753210, 0.05410627, 0.10224484, 0.08608928, 0.09011659, 0.06205297, -0.11430766, 0.17778884, -0.34610584
0.03644226, -0.04172103, 0.31364194, 0.41075364, 0.29907474, -0.10764722, 0.07277478, 0.29972291, 0.13718854, -0.27881849, -0.13479856, 0.30667511, 0.33292711, 0.16759923, 0.18526548, -0.04707927, -0.43327114, -0.21155626, 0.08171919, -0.01470072, 0.09664698, -0.07534850, 0.09230189, 0.31773594, 0.13853824, -0.11873132, 0.45066389, 0.07203939, 0.14480335, 0.09853513, -0.41422951, -0.01159029, -0.05210239, -0.37792891, -0.24749108, -0.04214523, -0.18472575, 0.21053106, 0.10096601, 0.39520893, -0.27343401, 0.15737914, -0.13348581, 0.32606027, -0.21345192, 0.21965894, -0.00850412, -0.04781120, -0.13411146, -0.38872033
-0.04247793, 0.26386988, -0.21469453, 0.52737367, 0.00969393, -0.11078858, -0.16380046, -0.06492393, -0.22043122, -0.01224745, 0.06125613, 0.27012554, 0.14691497, 0.03849924, 0.01408772, -0.07343531, -0.02044771, 0.08897694, 0.31526667, 0.31716046, -0.18519983, -0.07579126, 0.23559746, -0.11345400, -0.05201187, -0.15870956, 0.22607684, 0.44007698, 0.11286461, -0.01485771, 0.05761012, 0.42643830, 0.13743609, -0.27739793, 0.23869538, -0.11240605, -0.20424880, 0.12650256, -0.02676267, 0.15379077, 0.33477962, -0.06394704, 0.32526699, -0.07457317, 0.16479337, -0.03470740, -0.11058755, -0.02899802, -0.01801896, 0.05831265
-0.20755626, -0.16080095, -0.29493847, -0.06000488, -0.02973535, 0.12835960, 0.12747091, 0.13720371, -0.12104698, 0.02531785, -0.37074229, -0.11411143, -0.19308554, -0.01039097, 0.04297649, -0.27268097, 0.08822897, 0.30240709, 0.21622440, -0.30188209, -0.41442111, 0.05393448, 0.04238289, 0.41572204, -0.13211529, -0.43491146, 0.34820780, 0.02271379, 0.00758729, -0.06341396, -0.12681456, 0.21527536, -0.14321618, 0.38788071, -0.11670519, 0.07757850, 0.09098336, -0.14085019, -0.04952973, -0.28573799, 0.17232253, 0.33441749, -0.00204383, -0.15522417, 0.38005298, -0.16206734, 0.03452907, -0.17797025, -0.36713660, -0.20108384
0.13347894, -0.12402112, -0.19795856, 0.25180718, -0.07212365, 0.01189218, -0.20425279, -0.05702905, 0.12970226, 0.08946738, -0.07156786, 0.33816251, 0.17918022, -0.07747184, 0.26935413, 0.01447950, -0.09629286, 0.02088251, 0.06980544, -0.27923682, -0.18423244, -0.08963721, 0.17827863, 0.17795736, 0.13683048, 0.30354795, 0.28782386, 0.20155385, 0.02049281, 0.08088177, 0.41863087, 0.02796886, -0.20853080, 0.06869648, -0.24993469, 0.13259704, 0.04560557, 0.13286556, -0.03592893, 0.21373472, -0.06925809, -0.00374837, -0.38590071, -0.16378294, 0.28538448, 0.14604661, -0.09220029, 0.04710653, -0.10690393, 0.06820569
0.29337201, -0.26781899, -0.08061778, -0.04970029, -0.19581665, -0.20027857, -0.15788926, -0.13607776, 0.18993576, 0.03972159, 0.02102943, 0.08513453, -0.08109073, 0.32993725, -0.22637287, 0.09857574, -0.21993999, -0.03355710, 0.20598561, -0.37569141, -0.42931914, 0.09175412, -0.01489717, -0.30168864, 0.12182382, -0.26781192, -0.05288489, -0.38692856, 0.14467433, -0.04730598, -0.17161828, 0.13902141, 0.25834563, -0.31803304, -0.21101968, 0.10422686, -0.21517561, -0.22811721, -0.13944036, 0.29123014, 0.12379389, -0.15986416, -0.31481728, 0.06478388, -0.24095061, 0.11069398, -0.03546889, 0.07998659, -0.11768502, 0.17574681
-0.18026300, -0.21913198, 0.36330009, -0.00985205, 0.31826475, 0.10352620, -0.08798227, 0.10816327, 0.12957951, 0.11677399, -0.22730722, 0.14390755, -0.03355433, 0.12206151, 0.14070769, 0.26128283, 0.18173212, -0.16086684, -0.24420080, -0.13380295, -0.10756791, 0.19660074, 0.04247472, 0.00579998, -0.14304785, 0.10694976, -0.10667643, -0.33494872, -0.15875311, 0.09567982, -0.19032931, -0.01315836, 0.12522244, -0.24397607, 0.07108460, 0.05376700, -0.01646496, 0.08442441, -0.05557423, 0.12986945, -0.33129185, -0.34098369, 0.31490844, 0.29196697, -0.20055014, -0.14021820, 0.19258699, -0.02682043, -0.05943836, -0.10763326
-0.04393714, -0.01217203, 0.23179390, 0.00163173, 0.05102419, -0.14560834, 0.32239038, -0.05136659, 0.05630670, 0.00307286, -0.18474792, 0.28924364, -0.39391413, -0.02497711, 0.29904059, 0.32822454, -0.10059761, -0.20526411, -0.16581953, 0.27095795, 0.11010020, -0.04837951, -0.00184237, 0.34598270, -0.06532652, 0.29833364, -0.17234705, 0.21091788, 0.10120447, -0.16962101, -0.33209452, 0.28710827, 0.07117423, -0.20383492, 0.03288358, 0.19109716, 0.01439461, -0.35975647, -0.01017738, 0.36357763, 0.02671938, 0.01175889, -0.03972190, -0.08989348, 0.17409353, 0.29270443, -0.11242267, -0.25695348, 0.08721951, -0.09949020
-0.36070815, -0.13525414, -0.20305164, 0.24673046, -0.01496935, -0.07764085, 0.02395174, -0.22107664, 0.36922023, -0.23517890, -0.14725582, 0.26797912, -0.02845132, -0.05826911, 0.31636283, 0.21802917, -0.13687247, -0.15466537, 0.16556355, 0.30064031, 0.02028189, -0.19098504, 0.02856497, -0.21226023, -0.05568045, -0.35426909, 0.16464336, 0.35559890, 0.16429450, -0.37204751, -0.08067565, 0.08281051, 0.38395587, -0.22275628, -0.07874436, -0.07676760, 0.21571366, 0.15682597, -0.07556042, -0.26822886, -0.17265271, 0.18389994, -0.24810398, 0.00257566, -0.58014560, -0.10858086, -0.00729762, 0.36690462, 0.02305842, -0.09230062
-0.06368422, 0.22018796, -0.05653656, -0.07511204, -0.01217003, 0.04395015, -0.16416852, -0.07777555, 0.00043347, 0.09157644, 0.06025624, -0.21327128, -0.33944312, 0.22894588, -0.04348038, -0.02586057, -0.01906458, -0.06893986, -0.12010691, -0.46568319, -0.06761518, 0.15821557, -0.07707176, 0.21256368, 0.05144878, -0.01988098, 0.24010277, -0.07785791, 0.10921032, -0.14430234, 0.28257930, -0.15527201, -0.03529661, 0.32796437, -0.46232083, -0.23447855, 0.03900002, -0.10113531, -0.09234656, 0.13472545, 0.15338595, 0.12023133, 0.12681359, 0.13214393, 0.04545894, 0.09892676, -0.11404505, -0.13417077, -0.01233130, -0.20569225
-0.07150783, 0.25649139, -0.31549749, 0.25772116, 0.12653118, -0.15696926, 0.15434618, -0.03968862, -0.39681882, -0.26026538, -0.13391519, 0.23791946, -0.30448201, 0.02224479, 0.28628471, -0.37402356, -0.28051266, -0.17041914, -0.09810344, -0.30006719, -0.21966779, -0.15655141, -0.17929462, -0.22271937, -0.04653456, -0.06935523, 0.08891307, -0.12249389, 0.13580093, -0.03247064, 0.26563990, -0.06285488, 0.05851912, 0.19258294, -0.65433282, 0.22638939, 0.08676206, 0.08678375, 0.25216955, 0.11221888, 0.27373955, -0.06347749, 0.05198289, -0.30049580, 0.35816014, -0.16679125, 0.22954863, 0.15588611, 0.02160918, 0.18563646
-0.31123427, -0.08147294, 0.05878013, -0.11974834, 0.07899003, -0.05555449, -0.05670144, 0.15029588, -0.13760549, -0.02321501, 0.06057096, 0.23973149, -0.41034716, 0.04979876, 0.36714450, -0.02109151, -0.32723650, 0.34066185, 0.19810545, 0.16601360, 0.12495261, 0.28805271, -0.11674529, -0.24658288, 0.12149972, -0.10242457, 0.21859869, 0.00530546, -0.14079355, 0.09363400, -0.13782930, -0.02345767, 0.18997683, -0.00888923, -0.08228722, 0.06006597, 0.40482378, 0.29153040, 0.08966637, -0.25995049, -0.35698622, -0.09215316, -0.00125673, 0.38896999, 0.13243742, 0.04320963, -0.22240961, 0.18053830, 0.19809434, 0.17917275
-0.33507407, 0.29833743, -0.27931643, -0.19681306, 0.21540727, -0.00722553, -0.14490038, 0.01792447, -0.05123911, 0.18039817, 0.07634108, 0.15623252, -0.12876284, 0.12429902, -0.01269660, 0.01861230, 0.32233268, 0.38405636, 0.03318595, 0.23505968, -0.08100691, -0.03373784, 0.04118527, 0.21783043, 0.11611386, -0.11772082, 0.07687636, 0.03656751, -0.30241498, 0.39202034, 0.02457392, -0.26394227, 0.36692420, -0.27180693, 0.34049875, 0.16638048, -0.01185774, -0.40632620, -0.04881251, -0.03119278, -0.21060573, 0.11931330, -0.21288419, -0.00098388, -0.09166439, 0.13832796, -0.25799558, -0.29088151, 0.02238395, 0.09844880
-0.33905178, -0.09244291, -0.15946068, 0.09550547, 0.39991122, -0.12168186, -0.20407574, 0.10094537, -0.15968825, -0.16888709, -0.01614646, -0.39495319, -0.45624265, -0.22316624, 0.50194275, -0.19628930, 0.21706386, -0.18509209, -0.15860505, 0.19447650, -0.30095622, 0.16856116, -0.16764961, 0.22942002, 0.11198210, -0.36997220, 0.00411799, 0.04114628, -0.06199770, 0.01711215, 0.11507876, 0.32800621, -0.08532981, 0.43735486, 0.08433420, -0.17665459, 0.26620749, -0.39993745, -0.12705514, -0.14899564, 0.25631636, -0.10875798, 0.21556881, -0.46854314, 0.03857669, 0.16154832, 0.04674714, 0.05652455, -0.01543203, -0.02772486
0.01052226, -0.23628205, 0.40160310, 0.44327611, 0.06857838, -0.03846468, 0.02526539, 0.03609253, 0.03055323, 0.19110093, 0.15283628, -0.30785686, 0.27684394, -0.00084244, -0.20218803, -0.53152406, 0.01982502, 0.17359199, -0.32351750, -0.49047509, 0.12364053, -0.30870757, 0.02320522, 0.00554023, -0.15600881, 0.26876369, 0.15548761, -0.40111211, -0.12105179, -0.26401713, 0.28295466, -0.17071161, -0.02128576, -0.25052965, 0.26677713, 0.29846296, 0.17992347, 0.19433215, 0.22379819, -0.02034958, -0.22036912, 0.25754082, -0.23310056, 0.11686080, -0.34527963, 0.14218105, 0.04416933, 0.32720220, 0.12301612, 0.27444747
0.27831879, 0.10335132, 0.07112245, 0.19379528, 0.21442454, -0.33293566, -0.03857239, 0.15499474, -0.38255408, -0.14763695, -0.17562616, -0.15906338, -0.28399959, -0.43275928, 0.14475228, -0.14112611, -0.31868044, -0.34756485, 0.01547853, -0.24805896, 0.20839274, 0.28166467, -0.01496662, -0.17780080, 0.14868625, 0.18226299, -0.09201345, 0.09246460, -0.20793734, 0.03805928, 0.27577814, -0.26349175, -0.28215453, -0.22916473, -0.27101356, -0.16464679, -0.21562897, -0.31926417, -0.11935801, 0.10056879, -0.06839301, 0.40008369, -0.44153920, -0.01271657, -0.23678315, -0.19071880, -0.05158845, -0.38947910, -0.19048440, -0.33663541
-0.47240502, 0.13101745, 0.23088896, -0.08574397, -0.21544915, -0.06100913, -0.26975116, 0.24416648, 0.25854820, 0.05201757, -0.00240268, -0.43852434, -0.37820032, -0.36220211, -0.14662999, -0.24399433, -0.12427334, -0.13666667, 0.24845228, -0.06768041, 0.25716975, 0.02544985, -0.13754632, 0.01630418, -0.00338275, -0.18393239, -0.34476006, 0.00555895, 0.07258715, -0.34516314, -0.18168402, -0.24925035, -0.12771861, 0.06469202, -0.14119741, 0.15899487, -0.34718576, 0.00413753, -0.09086847, 0.43508855, 0.06029297, -0.28978884, 0.20277274, -0.42429936, 0.40791899, -0.17333861, 0.05310164, -0.26079687, -0.08127230, -0.25675046
-0.29596689, -0.12281454, 0.36558950, 0.30783859, 0.34762359, -0.09839774, -0.02438312, -0.12671903, -0.13534488, -0.31173736, 0.16438998, -0.24031265, -0.09794135, -0.04353408, 0.06715332, -0.33203942, 0.05225559, -0.20977721, -0.23124607, -0.00082562, -0.15870465, 0.00687429, 0.02340515, 0.26773447, 0.20009640, -0.10972074, 0.33627781, 0.20273218, 0.17431659, 0.11579064, 0.10228448, 0.18771380, 0.20094696, 0.26214433, 0.37537515, 0.00424383, 0.28577563, 0.02370355, 0.03221017, 0.05492643, -0.17360258, 0.04566203, 0.34538230, -0.10510387, -0.04217217, 0.31431791, 0.04972564, 0.15610556, -0.09120549, 0.32330111
0.09092123, 0.10152847, 0.15875317, -0.16614635, 0.23568860, 0.34005597, -0.11822434, 0.04105337, 0.15466158, 0.02686162, -0.31779689, -0.36662048, -0.09817815, -0.11386335, -0.22684431, 0.27787012, -0.00292924, 0.07253352, -0.15955156, 0.19624572, 0.18192254, 0.21449123, 0.12016170, 0.10658017, -0.14247359, 0.29833201, 0.16146761, -0.44749051, 0.03162877, -0.18688305, 0.20527053, 0.23904854, -0.23052019, 0.06825995, -0.34456316, 0.14538738, -0.04340110, 0.22671969, -0.06161371, 0.29268995, 0.34128016, -0.01149059, 0.24365990, -0.12094588, 0.34010422, 0.09787297, -0.25895983, -0.20646632, -0.23854299, 0.27475449
0.08703599, 0.26468351, -0.11618660, -0.28295943, 0.18523401, -0.06911841, 0.11086217, 0.05315216, -0.50887346, -0.12595549, 0.08833936, -0.27996734, 0.07367724, -0.12419983, 0.08471657, -0.13397844, 0.20924799, 0.12494462, 0.10328311, -0.28443259, 0.32276857, 0.00739648, -0.10064843, 0.17172448, -0.00864237, 0.26317459, 0.29353869, 0.08424561, 0.01945128, -0.48119304, 0.07775242, 0.07003623, -0.27863124, -0.25675783, 0.16172893, -0.06725426, 0.09644300, -0.01365185, -0.05961905, 0.27691826, -0.40950671, 0.21171255, -0.21598120, 0.08325107, 0.14298230, -0.33232734, 0.01002657, -0.26547453, 0.08568455, 0.00741810


Weights 3 Shape: (2,)
Weights 3:
-0.11830390
0.11830392


Weights 4 Shape: (50, 2)
Weights 4:
0.30558988, -0.95966184
-0.04646710, -1.22854841
-1.02117646, 0.68732506
0.42920643, -0.47414327
0.85076803, -0.44909176
0.38519681, 0.40802598
0.57447702, 0.58040357
0.44668394, 0.44200861
1.24932051, 0.22671562
0.45284605, 0.44022745
-0.85476995, -0.86048585
0.03525874, -0.67374855
-1.17273378, 0.53164530
-0.37018764, 0.40239215
-0.23826261, 0.86226827
-0.08510938, 0.46280915
0.43947217, 1.11418760
-0.08134106, -0.37905994
-1.02332938, -1.04223680
0.16720003, 0.81708312
0.31027055, -1.17453980
0.66554230, 0.65709871
0.91235179, 0.91270250
0.99636418, -0.49803844
0.52014852, 0.51624674
0.65933019, -0.48511699
0.06370617, -0.34505945
-0.34634176, 0.83499986
0.72646171, 0.72684020
0.72831959, 0.19411886
-0.71853918, 0.34597078
-0.12601419, -0.84937078
0.17319028, -1.11843157
0.64192748, -0.76422584
0.11038196, -1.22390389
-1.19096231, 0.86354923
0.26617390, 1.01886630
0.45008987, -0.50292331
1.09486020, 1.09234190
-0.58839977, -0.32548001
-0.45648181, 0.19694680
-0.91462374, 0.32793999
-0.18949781, 0.65785176
-1.20066988, -0.44315115
-0.93136555, 0.05014350
-0.88812888, -0.17278135
-0.89613819, -0.89128184
1.17859399, 0.19829315
0.43503043, 0.42393246
-0.07046410, 0.03038500


